svm_type c_svc
kernel_type rbf
gamma 0.00125471
nr_class 2
total_sv 758
rho -1.61943
label 1 0
nr_sv 352 406
SV
4 52:1 153:1 193:1 273:1 403:1 511:1 709:1 
4 89:1 137:1 320:1 346:1 403:1 655:1 754:1 788:1 
4 144:1 193:1 403:1 583:1 
4 9:1 89:1 318:1 403:1 654:1 655:1 754:1 
4 12:1 153:1 164:2 167:1 172:1 175:1 193:1 256:1 273:1 307:1 403:1 615:1 631:1 709:1 
4 118:1 193:1 403:1 409:2 
4 170:1 193:1 403:1 483:1 
4 104:1 170:1 193:1 403:1 483:1 
4 43:1 70:1 193:1 403:1 470:1 583:1 
4 118:1 193:1 403:1 497:1 584:1 
4 18:1 66:1 107:1 219:2 403:1 408:1 422:1 507:1 528:1 562:1 585:3 
4 193:1 256:1 278:1 395:1 403:1 511:1 580:1 629:1 703:1 
4 193:1 195:1 403:1 409:1 716:1 748:1 
4 193:1 403:1 583:1 
4 170:1 193:1 403:1 483:1 
1.748463737524054 100:1 149:1 150:1 153:1 193:1 245:1 273:1 282:1 392:1 403:1 444:1 452:1 497:1 579:1 612:1 709:1 731:1 
0.8973070593619621 78:1 193:1 295:1 353:1 393:1 403:1 741:1 
4 89:1 251:1 346:1 403:1 515:1 655:1 754:1 
4 87:1 166:1 193:1 308:2 322:1 403:2 706:1 
4 168:1 193:1 403:1 
4 193:1 289:1 295:1 353:1 403:1 741:1 
4 193:1 403:1 583:1 
4 251:1 346:1 378:1 403:1 433:1 515:1 705:1 
2.832919817899914 193:1 313:1 346:1 403:1 716:1 748:1 
4 193:1 195:1 403:1 
4 167:2 193:1 219:1 236:1 350:1 403:1 477:1 
4 4:1 104:1 143:1 193:1 235:1 384:1 403:1 505:1 
4 4:1 9:1 85:1 117:1 123:1 193:1 393:1 403:1 592:1 634:1 
4 193:1 240:1 403:1 583:1 
4 207:1 214:1 256:1 403:1 426:1 477:1 534:1 615:2 
4 120:1 346:1 403:1 523:1 594:1 605:1 657:1 771:1 788:1 
4 168:1 193:1 403:1 
4 12:1 84:1 177:1 193:1 297:1 303:1 368:1 403:1 541:1 615:1 681:1 
4 60:1 185:1 193:1 222:1 403:1 502:1 527:1 554:1 584:1 
4 20:1 60:1 193:1 266:1 358:1 403:1 
4 193:1 403:1 583:1 
4 118:1 193:1 403:1 
4 168:1 193:1 403:1 
4 59:1 84:1 193:1 259:1 382:1 403:1 790:1 
4 9:1 41:2 54:1 91:2 187:1 210:2 238:2 261:2 346:1 377:2 381:1 403:1 441:5 514:1 550:1 584:2 597:1 651:1 762:1 
4 167:1 193:1 330:1 403:1 583:1 
2.5530557247331 60:1 185:1 193:1 222:1 403:1 502:1 554:1 584:1 
4 9:1 89:1 318:1 403:1 654:1 655:1 754:1 
4 59:1 193:1 195:1 213:1 382:1 403:1 409:1 
4 193:1 219:2 403:2 655:2 
4 180:1 184:1 193:1 195:1 333:1 403:1 498:1 611:1 
2.74197376705165 75:2 167:1 192:1 193:1 219:1 392:1 403:1 497:1 511:1 629:1 655:1 738:1 
4 60:1 185:1 193:1 222:1 403:2 502:2 554:1 584:1 
4 113:1 114:1 193:1 210:1 278:1 279:1 317:1 403:1 536:1 664:1 684:1 794:1 
4 145:1 193:1 403:1 432:1 603:1 628:1 
4 9:1 89:1 318:1 403:1 654:1 655:1 754:1 
4 24:1 193:1 403:1 583:1 
4 4:1 104:1 143:1 193:1 235:1 384:1 403:1 502:1 505:1 
4 120:1 137:1 320:1 346:1 403:1 605:1 771:1 788:1 
4 137:1 193:1 320:1 403:1 409:1 
4 23:1 25:1 28:2 121:1 133:1 181:1 209:1 261:1 270:1 274:1 324:1 348:2 361:2 365:1 403:1 408:1 451:1 539:2 573:1 623:1 638:1 714:1 742:2 779:1 
4 120:1 403:1 662:1 
4 9:1 89:1 403:1 655:1 754:1 
4 43:1 70:1 170:1 193:1 403:1 470:1 483:1 
4 89:1 137:1 320:1 346:1 403:1 655:1 754:1 788:1 
4 193:1 210:1 219:1 236:1 350:1 403:1 
4 193:1 403:1 583:1 719:1 
2.323941827857346 19:1 193:1 403:1 506:1 632:1 654:2 
4 11:1 76:1 97:1 193:1 263:1 265:1 364:1 403:1 495:1 543:1 
4 193:1 219:2 294:2 403:2 
4 1:1 177:1 193:1 370:1 403:1 790:1 
4 193:1 403:2 575:1 608:1 
4 150:1 158:1 193:1 216:1 403:1 
1.514157502131835 10:1 27:1 42:1 93:1 109:1 193:1 195:1 247:1 327:1 403:1 409:1 416:1 521:1 557:1 564:1 588:1 681:1 
4 118:1 193:1 403:1 489:1 668:1 
4 193:1 403:2 575:1 608:1 
4 193:1 208:1 227:1 241:1 393:1 403:1 455:1 591:1 681:1 
4 145:1 193:1 403:1 432:1 603:1 628:1 
4 193:1 386:1 403:1 483:1 541:1 739:1 
4 114:1 193:1 210:1 263:1 279:1 317:1 364:1 403:1 684:1 
4 100:1 128:1 149:1 150:1 173:1 193:1 245:1 282:1 340:1 351:1 403:1 612:1 731:1 
4 193:1 326:1 403:1 537:1 673:1 
4 11:1 116:1 181:1 219:1 305:1 380:1 403:1 610:1 769:1 
4 60:1 193:1 403:1 
2.500993571439969 12:1 65:1 143:1 193:1 403:1 409:1 412:1 510:1 570:1 
4 34:1 122:2 206:1 225:1 289:1 345:1 403:1 419:1 466:2 614:1 651:1 658:3 
4 193:1 366:1 403:1 541:1 716:1 748:1 
4 34:1 122:2 206:1 225:1 289:1 345:1 403:1 419:1 466:2 578:1 614:1 651:1 658:3 
4 168:1 193:1 403:1 
4 5:1 12:1 193:1 195:1 403:1 409:1 
4 89:1 346:1 403:1 523:1 594:1 655:1 657:1 754:1 788:1 
4 61:1 193:1 403:2 433:1 780:1 
1.352080664061338 167:2 170:1 193:1 403:1 477:1 483:1 
4 9:1 378:1 403:1 433:1 705:1 
2.16699327004257 175:1 193:1 403:1 494:1 583:1 604:1 619:1 
4 168:1 193:1 403:1 
4 193:1 403:1 583:1 
4 168:1 193:1 403:1 
4 15:1 193:1 201:1 403:1 
0.03283570650509611 114:1 192:3 193:1 210:1 279:1 317:1 403:1 684:1 
0.9356635940229645 12:1 193:1 210:1 386:1 403:1 565:1 
2.156672692892243 60:1 185:1 193:1 222:1 374:1 403:1 502:1 554:1 584:1 
4 193:1 403:1 583:1 
4 34:1 122:2 206:1 225:1 289:1 345:1 403:1 419:1 466:2 614:1 651:1 658:3 
4 168:1 193:1 403:1 
4 193:1 403:1 583:1 
4 193:1 403:2 575:1 608:1 
4 170:1 193:1 403:1 483:1 
3.912789803681588 167:2 193:1 403:1 568:1 583:1 
4 12:1 65:1 143:1 193:1 403:1 409:1 412:1 510:1 570:1 
4 120:1 137:1 320:1 346:1 403:1 605:1 771:1 788:1 
4 93:1 193:1 403:1 535:1 583:1 
4 168:1 193:1 403:1 
4 190:1 193:1 307:1 403:1 483:1 587:1 631:1 737:1 
4 12:1 193:1 325:1 403:1 
4 34:1 122:2 206:1 225:1 289:1 345:1 403:1 419:1 466:2 614:1 651:1 658:3 
4 193:1 403:1 585:1 664:1 767:1 
4 334:1 346:1 360:1 389:1 403:4 475:1 521:1 584:1 597:1 
4 118:1 193:1 403:1 
2.459450993003804 170:1 193:1 403:1 483:1 486:1 757:1 
4 193:1 240:1 295:1 353:1 403:1 741:1 
4 61:1 193:1 403:2 433:1 780:1 
4 168:1 193:1 403:1 
4 86:1 193:1 219:1 236:1 275:1 277:1 350:1 403:1 409:1 644:1 
4 193:1 295:1 353:1 403:1 741:1 
4 167:1 193:1 295:1 330:1 353:1 403:1 741:1 
4 60:1 193:1 392:1 403:1 444:1 452:1 497:1 579:1 641:1 
4 193:1 403:1 583:1 
4 192:3 193:1 295:1 353:1 403:1 741:1 
4 153:1 193:1 208:1 211:1 273:1 403:1 709:1 734:1 
4 61:1 193:1 403:2 433:1 780:1 
4 19:1 143:1 193:1 210:1 403:1 506:1 565:1 632:1 
4 137:1 320:1 346:1 378:1 403:1 433:1 705:1 788:1 
4 193:1 208:1 227:1 241:1 393:1 403:1 455:1 591:1 681:1 
4 9:1 318:1 378:1 403:1 433:1 654:1 705:1 
0.06167169171906071 48:1 167:1 193:1 240:1 287:1 295:1 353:1 403:1 571:1 741:1 
4 125:1 403:1 433:2 553:1 780:1 
4 193:1 386:1 403:1 483:1 541:1 739:1 
4 167:2 193:1 219:1 236:1 350:1 403:1 514:1 663:2 
4 193:1 210:2 403:2 410:1 626:2 
4 9:1 378:1 403:1 433:1 705:1 
3.751801814865626 7:1 144:1 193:1 260:1 270:1 352:1 403:1 454:1 459:1 517:1 654:1 774:2 775:1 796:1 
0.7801330967499045 11:1 76:1 97:1 193:1 195:1 265:1 403:1 409:1 495:1 543:1 
4 163:1 193:1 403:1 
4 403:1 462:1 595:1 769:1 
4 61:1 193:1 403:2 433:1 780:1 
4 20:1 193:1 266:1 358:1 403:1 502:1 
4 193:1 295:1 353:1 403:1 741:1 
3.061297971488061 170:1 193:1 211:2 403:1 483:1 
4 5:1 12:1 193:1 195:1 403:1 409:1 
4 403:1 
1.322781643669473 128:1 143:1 173:1 193:1 210:1 340:1 351:1 403:1 565:1 
4 118:1 193:1 403:1 584:1 
4 168:1 193:1 403:1 
4 157:1 192:1 193:1 373:1 403:1 523:1 640:1 641:1 
1.811362767713187 193:1 381:1 403:1 583:1 
2.36563035861529 7:1 144:1 193:1 260:1 270:1 352:1 403:1 454:1 459:1 517:1 654:1 774:2 775:1 796:1 
4 193:1 403:2 575:1 608:1 
4 346:1 378:1 403:1 433:1 523:1 594:1 657:1 705:1 788:1 
4 84:1 192:1 193:1 403:1 557:1 589:1 
3.863538509020572 9:1 193:1 330:1 355:1 371:1 403:1 633:1 
4 193:1 386:1 403:1 640:1 
4 9:1 89:1 403:1 655:1 754:1 
4 193:1 219:2 403:2 655:2 
4 163:1 193:1 403:1 
3.377424569358871 9:1 193:1 330:1 355:1 371:1 403:1 633:1 
4 93:1 193:1 403:1 535:1 583:1 
4 61:1 193:1 403:2 433:1 780:1 
4 163:1 193:1 403:1 
4 168:1 193:1 403:1 
4 70:1 153:1 193:1 273:1 403:1 515:1 709:1 
4 12:1 84:1 177:1 193:1 297:1 303:1 368:1 403:1 541:1 615:1 681:1 
4 9:1 318:1 378:1 403:1 433:1 654:1 705:1 
4 163:1 193:1 403:1 
4 168:1 193:1 403:1 
4 193:1 219:1 236:1 350:1 403:1 489:1 668:1 
4 143:1 193:1 210:1 403:1 565:1 
4 193:1 210:1 393:1 403:1 
4 193:1 208:2 403:1 409:1 
4 188:1 341:1 403:1 740:1 
4 193:1 403:1 516:1 674:1 777:1 
4 190:1 193:1 307:1 403:1 483:1 587:1 631:1 737:1 
4 5:1 12:1 193:1 195:1 403:1 409:1 
4 193:1 403:1 583:1 
4 193:1 403:2 575:1 608:1 
4 193:1 403:1 486:1 716:1 748:1 757:1 
4 193:1 219:2 294:2 403:2 
4 137:1 320:1 346:1 378:1 403:1 433:1 705:1 788:1 
4 59:1 403:2 574:1 697:1 771:1 
4 8:1 80:1 179:1 193:1 403:1 540:1 654:1 
4 193:1 255:1 403:1 477:1 583:1 
4 168:1 193:1 403:1 
4 61:1 193:1 403:2 433:1 780:1 
4 168:1 193:1 403:1 
4 193:1 403:2 575:1 608:1 
4 137:1 320:1 346:1 378:1 403:1 433:1 705:1 788:1 
4 12:1 104:1 190:1 193:1 195:1 403:1 427:1 737:1 
4 193:1 195:1 219:1 403:1 655:1 
4 17:1 133:1 150:1 166:1 193:1 294:1 308:2 315:1 320:2 322:1 403:2 427:1 706:1 715:1 
0.3188216287328289 14:1 135:1 192:1 193:1 195:1 386:2 403:1 447:1 478:1 589:1 649:1 729:1 
4 137:1 320:1 346:1 378:1 403:1 433:1 705:1 788:1 
4 167:1 193:1 343:1 403:1 577:1 
4 78:1 153:1 193:1 273:1 393:1 403:1 709:1 
4 89:1 346:1 403:1 523:1 594:1 655:1 657:1 754:1 788:1 
4 193:1 403:2 575:1 608:1 
4 153:1 193:1 224:1 273:1 389:1 403:1 414:1 709:1 
4 168:1 193:1 403:1 
4 193:1 403:2 575:1 608:1 
4 193:1 210:1 403:1 684:1 757:1 
4 20:1 193:1 266:1 358:1 403:1 
4 193:1 285:1 403:1 510:1 583:1 
4 193:1 403:1 450:1 583:1 
4 193:1 210:1 390:1 403:1 684:1 779:1 
3.34467210788864 167:1 168:1 193:1 403:1 565:1 584:1 
4 2:1 403:1 
4 193:1 208:1 227:1 241:1 393:1 403:1 455:1 591:1 681:1 
4 193:1 210:2 403:2 410:1 626:2 
4 31:2 143:1 403:1 651:1 
4 168:1 193:1 403:1 
4 192:1 193:1 256:1 395:1 403:1 511:1 580:1 589:1 629:1 703:1 
4 9:1 318:1 378:1 403:1 433:1 654:1 705:1 
4 34:1 122:2 206:1 225:1 289:1 345:1 403:1 419:1 466:2 578:1 614:1 651:1 658:3 
4 193:1 195:1 219:1 294:1 403:1 
4 9:1 318:1 378:1 403:1 433:1 654:1 705:1 
4 39:1 193:1 210:1 223:1 403:1 684:1 791:1 
4 61:1 193:1 403:2 433:1 780:1 
4 43:1 70:1 168:1 193:1 403:1 470:1 
4 192:3 193:1 403:1 583:1 
4 157:1 192:1 193:1 373:1 403:1 523:1 640:1 641:1 
1.739727254231494 36:1 193:1 195:1 403:1 439:1 629:1 641:1 730:1 
4 193:1 256:1 278:1 395:1 403:1 511:1 580:1 629:1 703:1 
1.330268090598026 104:1 193:1 403:1 583:1 
4 170:1 193:1 403:1 483:1 489:1 668:1 
4 61:1 193:1 403:2 433:1 780:1 
4 193:1 403:1 583:1 
4 334:1 346:1 360:1 389:1 403:4 475:1 521:1 584:1 597:1 
4 9:1 89:1 403:1 655:1 754:1 
1.858075259695043 193:1 224:1 295:1 353:1 389:1 403:1 414:1 741:1 
4 193:1 403:1 418:1 583:1 
0.4667422524042019 193:1 366:1 403:1 541:1 583:1 
2.340173160224375 61:1 193:1 403:2 433:1 780:1 
4 120:1 346:1 403:1 523:1 594:1 605:1 657:1 771:1 788:1 
4 154:1 403:1 
4 180:1 184:1 193:1 195:1 333:1 403:1 498:1 611:1 
4 193:1 403:1 583:1 
4 193:1 195:1 403:1 592:1 629:1 641:1 
4 52:1 98:1 125:1 185:1 403:1 630:1 757:1 
2.804843823005156 12:1 65:1 143:1 193:1 403:1 409:1 412:1 510:1 570:1 
4 34:1 122:2 206:1 225:1 289:1 345:1 403:1 419:1 466:2 578:1 614:1 651:1 658:3 
4 36:1 193:1 195:1 403:1 439:1 629:1 641:1 730:1 
4 176:1 403:1 760:1 789:1 
4 168:1 193:1 403:1 
4 12:1 57:1 193:1 194:1 210:1 386:1 403:1 
4 193:1 382:1 392:1 403:1 444:1 452:1 497:1 579:1 641:1 
4 12:1 71:1 164:1 193:1 210:1 386:1 403:1 565:1 
4 168:1 193:1 386:1 403:1 457:1 
4 168:1 193:1 403:1 
4 4:1 346:1 403:1 584:1 673:1 782:1 
4 193:1 219:1 236:1 350:1 403:1 715:1 
4 193:1 403:2 575:1 608:1 
4 9:1 378:1 403:1 433:1 705:1 
4 4:1 104:1 143:1 193:1 235:1 384:1 403:1 505:1 
4 168:1 193:1 403:1 
4 193:1 403:1 583:1 
3.17995517243247 10:1 27:1 42:1 93:1 109:1 193:1 195:1 247:1 327:1 403:1 409:1 416:1 521:1 557:1 564:1 588:1 681:1 
4 9:1 318:1 378:1 403:1 433:1 654:1 705:1 
3.259538477536417 171:1 193:1 403:1 542:1 618:1 788:1 
4 193:1 386:1 403:1 640:1 
0.9929000015786971 163:1 193:1 219:1 223:1 236:1 350:1 403:1 654:1 
4 171:1 193:1 403:1 542:1 618:1 788:1 
4 60:1 193:1 403:1 
4 171:1 193:1 403:1 542:1 618:1 788:1 
4 117:1 175:1 193:1 199:1 216:1 403:1 435:1 494:1 604:1 619:1 
4 193:1 403:1 584:1 681:1 
4 9:1 89:1 318:1 403:1 654:1 655:1 754:1 
4 9:1 378:1 403:1 433:1 705:1 
4 170:1 193:1 211:2 403:1 483:1 
4 193:1 403:2 575:1 608:1 
4 193:1 386:1 390:1 403:1 640:1 
4 72:1 80:1 117:1 193:1 403:1 654:1 
4 193:1 403:2 575:1 608:1 
4 193:1 403:1 583:1 
4 48:1 167:1 193:1 240:1 287:1 295:1 353:1 403:1 571:1 741:1 
3.749779621966737 193:1 208:2 403:1 409:1 502:1 
4 120:1 192:3 193:1 403:1 605:1 771:1 
4 193:1 295:1 353:1 403:1 741:1 
4 168:1 193:1 403:1 
4 193:1 403:1 409:1 521:1 
3.912015095048797 171:1 193:1 403:1 542:1 618:1 788:1 
4 170:1 193:1 403:1 483:1 
4 193:1 219:2 403:2 655:2 
1.860731743775937 193:1 403:1 654:2 
2.335734314760546 36:1 193:1 210:1 403:1 439:1 684:1 730:1 
4 157:1 192:1 193:1 373:1 403:1 523:1 640:1 641:1 
4 89:1 346:1 403:1 523:1 594:1 655:1 657:1 754:1 788:1 
4 9:1 89:1 403:1 655:1 754:1 
4 9:1 378:1 403:1 433:1 705:1 
4 133:2 261:1 403:1 553:1 573:1 
4 89:1 346:1 403:1 523:1 594:1 655:1 657:1 754:1 788:1 
4 9:1 378:1 403:1 433:1 705:1 
4 23:1 25:1 28:2 121:1 133:1 181:1 209:1 261:1 270:1 274:1 324:1 348:2 361:2 365:1 403:1 408:1 451:1 539:2 573:1 623:1 638:1 714:1 742:2 779:1 
4 9:1 378:1 403:1 433:1 705:1 
4 137:1 320:1 346:1 378:1 403:1 433:1 705:1 788:1 
4 251:1 346:1 378:1 403:1 433:1 515:1 705:1 
4 120:1 251:1 346:1 403:1 515:1 605:1 771:1 
4 11:1 188:5 283:1 307:1 341:3 381:1 403:1 483:1 521:1 584:1 620:1 649:1 
4 9:1 89:1 318:1 403:1 654:1 655:1 754:1 
4 89:1 346:1 403:1 523:1 594:1 655:1 657:1 754:1 788:1 
4 251:1 346:1 378:1 403:1 433:1 515:1 705:1 
4 120:1 137:1 320:1 346:1 403:1 605:1 771:1 788:1 
4 120:1 251:1 346:1 403:1 515:1 605:1 771:1 
4 9:1 378:1 403:1 433:1 705:1 
4 89:1 137:1 320:1 346:1 403:1 655:1 754:1 788:1 
4 89:1 251:1 346:1 403:1 515:1 655:1 754:1 
4 23:1 25:1 28:2 121:1 133:1 181:1 209:1 261:1 270:1 274:1 324:1 348:2 361:2 365:1 403:1 408:1 451:1 539:2 573:1 623:1 638:1 714:1 742:2 779:1 
4 43:1 403:1 
4 89:1 346:1 403:1 523:1 594:1 655:1 657:1 754:1 788:1 
4 137:1 320:1 346:1 378:1 403:1 433:1 705:1 788:1 
4 
4 483:1 587:1 
4 
4 9:1 19:1 318:1 416:1 654:1 
4 207:2 418:1 623:1 
4 615:1 788:2 
4 197:1 229:1 301:1 330:1 736:1 758:2 
4 210:1 281:1 300:3 340:1 351:1 433:1 511:1 607:3 701:1 
4 91:1 242:3 256:1 352:1 409:2 426:1 
4 226:2 288:1 357:1 483:2 651:1 
4 37:1 64:2 152:2 207:1 270:1 346:1 419:1 421:2 435:3 481:1 485:1 532:1 692:1 
4 258:1 673:1 
4 37:1 64:2 152:2 207:1 270:1 346:1 419:1 421:2 435:3 481:1 485:1 532:1 692:1 
4 210:1 684:1 
4 466:1 656:3 695:1 
4 188:1 214:1 334:1 547:3 
4 519:1 686:1 
4 346:1 433:1 515:1 
4 163:1 181:1 280:1 346:1 347:1 465:1 507:1 556:1 654:1 
4 270:1 309:1 381:1 433:2 511:1 
4 135:1 199:2 239:2 241:1 283:1 519:1 616:2 
4 70:1 
4 125:1 654:1 
4 52:1 226:1 263:1 313:1 608:1 
4 137:1 175:1 197:1 270:1 333:1 465:1 608:1 
4 346:1 384:1 433:1 733:3 
4 197:1 229:1 301:1 330:1 736:1 758:2 
4 66:1 381:1 684:1 715:1 
4 89:1 186:1 195:1 210:1 409:1 684:1 
4 623:1 
4 86:1 
4 17:1 491:1 
4 137:1 320:1 346:1 788:1 
4 122:1 501:1 633:1 701:1 
4 26:1 195:1 288:2 313:1 601:1 651:1 
4 174:1 736:1 
4 134:1 789:1 
4 
4 
-4 403:1 
-0.2585366776783292 126:1 399:1 403:1 
-4 403:1 
-0.9787531349725802 43:1 71:1 164:1 219:1 338:1 362:1 399:1 403:1 419:1 476:1 655:1 743:1 779:1 797:1 
-0.2019028346370706 87:1 161:1 401:1 403:1 
-4 403:1 
-4 403:1 
-4 403:1 
-4 403:1 
-4 219:1 333:2 403:1 
-0.1412918985386017 180:1 371:1 403:1 440:1 446:1 471:1 721:1 735:1 
-4 403:1 
-0.8006385733669494 403:1 464:1 524:2 661:1 690:1 
-3.038487318560726 192:2 219:1 403:1 499:1 740:1 
-4 403:1 
-2.433320284279804 179:1 279:1 392:1 403:1 
-4 111:1 124:1 197:1 314:1 320:1 403:1 409:1 435:1 453:1 458:1 669:1 
-4 403:1 
-0.4589443592050871 44:2 86:1 214:1 279:2 338:1 403:1 534:1 565:1 619:1 
-1.090755354876249 403:1 419:1 520:1 538:1 563:1 
-4 403:1 
-4 403:1 769:1 
-4 219:1 403:1 
-0.7457042581753246 123:1 313:1 332:4 402:2 403:1 436:1 490:2 663:1 713:3 
-4 403:1 410:1 423:1 527:1 
-1.273550908431967 403:1 457:1 596:1 
-4 12:1 193:1 306:1 403:1 437:1 471:1 541:1 595:2 
-3.788096515624338 176:1 260:1 403:1 491:1 616:1 
-4 403:1 409:1 755:1 
-4 360:1 403:1 766:1 
-0.9603117856849926 57:1 130:1 150:1 205:1 231:1 240:1 256:1 278:1 403:1 455:1 466:2 653:2 737:2 743:7 
-4 403:1 
-4 193:1 403:2 592:2 
-4 193:1 403:2 592:2 
-0.1929143771517653 4:1 58:1 129:1 313:2 403:1 553:2 590:1 655:1 675:1 747:1 779:1 
-4 370:1 403:1 
-4 137:1 193:1 320:1 403:1 409:1 654:1 
-4 167:1 192:1 205:1 238:2 403:1 455:1 628:1 655:1 
-4 96:1 115:1 192:1 202:1 403:1 422:1 462:1 528:1 598:1 630:1 640:1 655:2 667:1 712:1 750:1 
-4 12:1 248:1 403:1 
-2.239439410434275 403:1 773:1 
-4 192:1 403:1 
-4 403:1 
-4 403:1 
-2.265096741180695 403:1 759:1 
-1.159159455397361 257:3 403:1 531:3 590:1 
-4 6:1 55:1 74:1 232:1 258:1 403:1 422:1 433:1 600:1 695:1 696:1 
-4 403:1 
-1.074755488795233 53:1 58:1 84:1 167:1 191:1 213:1 233:1 240:1 403:1 420:3 465:1 466:1 640:1 717:3 
-4 193:1 211:1 231:1 403:1 
-4 329:1 372:1 403:1 433:1 553:1 
-2.187946314153263 379:1 403:1 
-4 403:1 
-4 219:1 403:1 
-4 88:1 150:1 205:1 238:1 403:1 591:1 704:1 788:1 
-0.2847032743249464 37:2 70:1 117:1 146:1 280:1 367:2 403:1 436:1 695:1 
-0.5227546683027637 12:1 150:1 179:1 192:1 403:1 405:1 468:2 507:3 514:1 593:1 615:1 720:1 
-4 142:1 167:1 192:1 403:1 655:1 
-1.147262939815899 82:1 401:1 403:1 
-4 101:1 192:1 243:1 403:1 514:1 522:1 649:1 655:1 
-4 193:1 403:1 
-4 182:1 283:1 403:1 670:1 
-4 70:1 140:1 403:1 668:1 
-4 403:1 
-4 113:1 193:1 278:1 403:1 664:1 
-4 19:1 107:1 186:1 313:1 316:1 318:1 403:1 748:1 
-4 4:1 123:1 219:2 403:2 409:3 627:1 
-4 403:1 419:1 
-2.255794354172245 403:1 586:1 
-4 403:1 419:1 778:1 
-4 193:1 403:1 584:1 
-4 377:1 403:1 
-1.085786498780919 189:3 403:1 
-4 195:1 306:1 403:1 710:1 
-4 403:1 
-4 403:1 
-2.947564573225742 214:1 403:1 712:1 
-4 403:1 
-4 403:1 
-2.240814877009486 192:1 219:1 403:1 793:1 
-4 167:1 403:1 
-4 403:1 
-4 14:2 37:1 88:1 117:1 146:2 150:1 179:1 219:1 403:1 468:1 560:1 565:1 652:1 681:2 708:1 743:1 788:1 
-4 403:1 
-0.3343374536874226 13:2 146:1 197:1 214:1 248:1 403:1 462:1 521:1 
-4 43:1 403:1 689:1 
-2.481982629933743 44:1 63:1 70:2 129:1 218:2 291:1 297:1 320:1 403:1 422:1 521:1 566:1 665:1 690:1 707:1 770:1 
-4 3:1 264:1 279:1 313:1 403:1 440:1 591:1 606:1 750:1 788:1 
-4 117:1 163:1 304:1 403:1 
-4 320:1 403:1 433:1 
-4 294:1 346:1 403:1 409:1 584:1 701:1 
-4 117:1 128:1 403:1 681:1 
-4 403:1 
-1.478711052311647 374:1 403:1 728:14 
-4 193:1 362:1 403:1 
-4 15:1 193:1 201:1 390:1 403:1 
-4 12:1 219:1 256:3 403:1 590:1 639:2 662:1 669:1 
-4 403:1 
-4 193:1 403:1 516:1 674:1 777:1 
-2.297752542665689 403:1 630:1 
-4 403:1 
-0.09921216825010251 8:1 13:1 44:1 71:1 115:1 117:1 150:2 164:2 219:1 256:1 269:1 289:1 376:1 403:1 577:1 623:2 779:1 781:1 
-4 169:1 301:1 403:1 
-3.69240786581032 34:5 99:1 150:2 248:1 289:1 293:1 403:1 468:1 476:1 491:1 660:1 
-3.041528847266054 55:1 320:1 403:1 717:1 
-4 15:1 193:1 201:1 403:1 
-4 174:1 383:1 403:1 463:1 655:1 788:1 
-4 403:1 
-4 193:1 219:2 294:2 403:2 
-4 403:1 
-4 403:1 
-0.3797398200330043 63:1 403:1 744:1 
-4 289:1 403:1 
-4 403:1 
-1.360259877075713 4:1 167:1 228:1 403:1 462:1 464:1 593:1 
-4 151:1 403:1 709:1 
-4 403:1 
-4 403:1 681:1 
-4 403:1 
-4 403:1 
-4 403:1 
-4 403:1 515:1 
-4 403:1 
-4 403:1 
-2.266940843363501 398:1 403:1 
-4 219:1 403:1 
-4 403:1 
-1.666154544787939 50:1 403:1 
-4 43:1 61:1 179:1 193:1 210:1 346:1 403:1 433:1 734:1 780:1 
-4 16:1 238:1 403:1 556:1 655:1 
-4 10:1 27:1 42:1 93:1 109:1 193:1 195:1 247:1 327:1 403:1 409:1 416:1 521:1 557:1 564:1 588:1 681:1 
-4 403:1 
-4 57:1 403:1 594:1 
-4 403:1 
-4 44:1 87:1 193:1 403:1 
-4 403:1 
-4 403:1 
-4 403:1 
-4 193:1 403:1 516:1 674:1 777:1 
-4 12:1 306:1 403:1 593:1 655:2 
-4 192:1 243:1 396:1 403:1 584:1 721:1 
-1.765816487878316 285:1 289:1 403:1 725:1 
-4 403:1 
-2.271053100077875 400:1 403:1 
-4 15:1 193:1 201:1 403:1 
-4 113:1 193:1 278:1 403:1 536:1 664:1 794:1 
-4 403:1 419:1 
-4 403:1 
-0.3480982325035394 192:1 306:1 375:1 403:1 560:1 567:1 655:1 666:1 
-4 403:1 
-4 111:1 403:1 515:1 692:1 
-4 403:1 
-4 403:1 
-4 403:1 
-4 403:1 
-1.322680584482746 56:1 376:1 403:1 
-1.07206670105186 219:1 403:1 
-4 403:1 
-4 4:1 58:1 129:1 313:2 403:1 553:2 655:1 747:1 779:1 788:1 
-4 403:1 
-4 12:1 123:1 210:1 306:1 403:1 
-4 403:1 
-4 4:1 98:1 133:1 138:2 168:1 403:1 463:1 615:1 662:1 686:1 
-4 193:1 403:1 516:1 674:1 777:1 
-4 219:1 289:1 403:1 
-4 213:1 403:1 
-4 403:1 
-4 403:1 
-4 70:1 403:1 
-4 175:1 193:1 194:1 346:2 403:1 781:1 
-4 403:1 
-1.0975381119062 70:1 403:1 766:1 
-4 403:1 
-1.555472417505683 342:2 403:1 
-1.607185361023581 161:1 403:1 
-4 167:1 403:1 482:1 
-1.119226915085662 403:1 538:1 
-4 403:1 
-4 113:1 193:1 278:1 382:1 403:1 536:1 664:1 794:1 
-1.047230210683143 323:1 403:1 609:1 
-4 403:1 
-4 192:1 219:1 403:1 785:1 
-3.515735623516571 250:1 403:1 497:1 686:1 
-4 220:1 229:1 403:1 
-4 403:1 
-1.771433378611197 403:1 637:1 723:1 
-4 403:1 419:1 
-4 403:1 
-0.2393648673777684 57:4 175:1 403:1 460:5 
-2.21251586140587 403:1 685:1 
-4 403:1 
-0.1438324161798933 403:1 737:1 
-4 289:1 403:1 
-3.162745440220634 320:1 403:1 645:1 732:4 
-1.161788628546261 70:1 102:1 403:1 
-2.255794354172334 403:1 581:1 
-2.242259412517348 275:1 403:1 
-4 403:1 
-4 403:1 
-4 403:1 
-0.6907559429941126 403:1 507:1 
-1.914223329752053 179:1 320:1 403:1 422:1 492:1 671:1 755:1 
-2.522819486266327 384:1 403:1 662:1 749:1 
-4 193:1 403:1 
-4 403:1 
-4 3:1 193:1 403:1 
-4 403:1 
-4 403:1 
-4 403:1 
-4 403:1 
-3.994894860755523 62:1 102:1 132:1 164:3 403:1 419:1 446:1 475:1 541:1 724:1 
-4 289:1 403:1 
-4 124:1 337:1 403:1 433:1 680:1 691:1 
-0.9629333894873018 219:1 284:1 403:1 514:1 
-1.094118214827192 403:1 520:1 725:7 
-4 403:1 
-4 403:1 
-4 403:1 
-4 133:1 144:1 403:1 655:1 
-2.259818147238797 276:1 403:1 
-4 403:1 
-4 313:1 403:1 433:1 
-4 193:1 403:1 
-4 203:1 403:1 578:1 784:1 
-4 193:1 403:2 592:2 
-4 403:1 
-1.096163720134548 401:1 403:1 693:1 
-2.239305733223034 403:1 576:1 
-4 403:1 
-4 403:1 
-2.234954531904131 123:2 134:1 261:1 349:1 356:1 371:2 403:1 500:1 522:1 
-4 403:1 
-0.9062832311503355 70:1 172:1 403:1 537:1 609:1 
-4 380:1 403:1 
-0.8486193249285816 3:1 53:1 70:1 77:1 118:1 150:1 214:1 218:1 219:1 312:2 403:1 479:1 512:1 566:1 738:1 740:1 
-3.328873338108987 117:1 403:1 438:1 565:1 
-4 403:1 
-4 403:1 
-1.850990731187753 150:1 323:1 403:1 419:1 468:1 518:11 652:28 
-4 403:1 
-4 403:1 
-4 403:1 
-0.9224613660309225 219:1 403:1 460:3 
-4 403:1 
-4 167:1 175:3 191:1 205:1 284:1 286:1 403:1 424:1 457:1 611:1 655:4 718:1 772:1 
-4 403:1 
-4 193:1 403:2 592:2 
-0.4669118396260776 150:1 403:1 563:4 
-4 403:1 
-4 403:1 
-3.180105315162241 163:1 403:1 419:1 485:1 492:1 622:3 
-4 403:1 
-4 326:1 403:1 
-4 193:1 211:1 231:1 403:1 
-2.265828160910839 403:1 676:1 
-4 403:1 615:1 721:1 
-4 403:1 
-4 9:1 403:1 681:1 717:2 
-4 403:1 
-4 32:1 403:1 433:1 476:1 525:1 592:1 627:1 688:1 
-2.413767380710507 12:1 55:1 403:1 593:1 599:1 697:1 
-4 403:1 
-4 96:1 403:1 529:1 709:1 
-4 127:1 403:1 431:4 433:1 508:1 
-4 403:1 
-2.292859795876813 33:2 333:1 403:1 
-3.778712843517664 186:1 403:1 719:1 
-4 403:1 
-4 219:1 248:2 310:1 403:1 418:1 433:1 442:3 740:1 
-4 309:1 403:1 
-4 403:1 422:1 436:1 556:1 655:1 683:1 760:1 765:1 
-4 193:1 403:1 
-4 403:1 
-4 320:1 403:1 421:1 466:2 476:1 593:1 691:1 700:1 718:2 743:1 765:1 
-2.71834375660799 19:1 403:1 632:1 
-4 403:1 
-4 403:1 
-4 193:1 263:1 364:1 403:1 
-0.9783326997591284 133:1 146:1 189:1 290:1 374:1 403:1 405:1 504:1 764:1 
-1.66876322732536 197:1 296:3 403:1 
-1.536526733669725 131:2 403:1 
-4 403:1 
-0.3046300578949369 403:1 411:1 563:1 
-4 113:1 193:1 278:1 403:1 418:1 461:1 535:1 536:1 664:1 747:1 794:1 
-4 403:1 
-4 219:1 403:1 466:1 
-3.602868251611895 43:1 133:1 150:1 403:1 500:1 729:1 756:1 
-4 193:1 403:1 584:1 
-4 12:1 104:1 193:1 362:1 403:1 465:1 557:1 
-4 403:1 
-3.738355439063411 44:1 71:1 125:3 135:1 192:1 219:1 334:1 403:1 442:1 557:1 623:1 
-4 403:1 
-4 403:1 
-4 403:1 
-1.455625542752089 12:1 19:1 99:1 111:1 256:1 260:1 403:1 450:2 477:1 546:1 
-4 80:1 205:1 250:1 320:1 403:1 438:1 455:1 546:1 709:1 737:1 
-4 320:1 403:1 407:1 
-4 403:1 
-2.118373852822883 19:1 136:2 156:1 162:3 344:1 362:1 399:1 403:2 415:1 463:1 470:1 635:1 779:1 788:1 
-1.05255337875607 403:1 490:1 527:1 
-4 403:1 
-4 403:1 
-4 403:1 
-4 238:1 403:1 409:1 584:1 
-2.274253110639146 92:1 403:1 
-2.269671507178741 403:1 726:1 
-1.103125595646782 331:1 403:1 546:1 701:1 
-4 193:1 403:2 592:2 
-4 330:3 403:1 465:1 695:2 
-2.252688456796907 271:1 403:1 
-4 38:1 88:1 193:1 250:1 315:1 346:1 403:1 615:1 716:1 748:1 795:1 
-4 403:1 
-4 403:1 
-4 403:1 
-4 193:1 347:2 369:3 403:1 465:2 526:1 696:1 748:1 768:1 
-0.3777059137105666 63:1 200:1 403:1 
-2.249679219059554 106:1 403:1 
-2.231919865301474 403:1 621:1 
-2.255794354172334 403:1 617:1 
-4 22:1 54:1 71:1 123:1 132:1 172:1 221:1 269:2 316:1 338:1 403:1 506:1 613:1 615:1 655:1 774:1 
-0.4273840290576418 150:1 403:1 636:3 
-2.245463152484879 403:1 555:1 
-4 403:1 
-0.3804964711861673 161:1 403:1 797:1 
-4 7:1 71:1 144:1 164:1 193:1 260:1 352:1 403:1 454:1 459:1 654:1 774:2 796:1 
-3.146805494823117 129:1 403:1 565:1 
-1.550946979503403 403:1 449:2 
-4 197:1 403:1 477:1 
-4 210:1 219:1 403:1 
-4 403:1 
-4 90:1 128:1 279:1 403:1 484:1 741:1 
-4 193:1 403:1 487:1 
-0.8081908257032162 376:1 403:1 646:1 
-4 403:1 519:1 
-4 176:1 275:1 306:1 357:2 403:1 483:1 507:1 551:1 584:1 662:1 
-4 403:1 
-1.33829293437223 136:1 156:2 162:1 375:1 403:1 415:3 463:1 716:3 
-4 403:1 
-4 4:1 6:1 57:1 289:1 403:1 505:1 513:1 594:1 717:1 
-4 403:1 709:1 
-2.892745052982314 44:1 277:1 403:1 431:1 628:1 650:2 655:1 765:1 
-4 403:1 
-4 143:1 155:1 167:2 192:1 219:1 403:1 409:1 718:1 740:1 
-4 403:1 
-4 403:1 
-4 403:1 
-4 403:1 
-3.384662652552468 31:4 403:1 
-4 59:1 403:1 474:1 
-4 403:1 
-4 78:1 101:1 195:1 198:1 403:1 433:1 465:1 654:1 737:1 745:1 
-4 193:1 403:2 592:2 
-4 403:1 
-4 193:1 403:1 666:1 
-4 403:1 
-4 403:1 
-0.5198997792539802 403:2 717:19 
-2.848357101529298 19:1 167:3 192:3 243:1 306:1 313:1 403:1 442:1 497:1 629:1 640:2 666:1 667:1 718:1 
-4 18:1 80:1 219:1 403:1 422:1 466:1 528:1 562:1 585:1 
-2.255794354172334 272:1 403:1 
-1.749101917470297 2:22 197:1 380:2 403:2 430:1 749:1 
-4 403:1 
-0.5302193896163236 3:1 21:2 67:1 238:1 279:1 357:1 403:1 463:1 565:1 584:1 646:1 
-1.140616285170285 29:1 403:1 596:1 
-4 403:1 
-4 72:2 98:1 159:1 306:2 346:1 403:2 507:1 618:1 633:1 697:1 731:1 737:1 779:1 792:1 
-0.1353277330534531 43:1 150:1 238:1 320:1 375:2 383:1 403:1 417:1 447:1 513:1 556:1 642:1 690:1 792:1 
-4 254:1 282:1 403:1 408:1 419:1 559:3 629:1 691:1 
-1.249750497880355 70:1 403:1 772:1 
-4 193:1 403:1 430:1 
-4 193:1 210:1 403:1 
-4 193:1 403:1 664:1 747:1 767:1 
-4 403:1 
-2.265828160910787 403:1 569:1 
-1.059919525816982 155:2 220:1 253:2 314:1 403:1 552:1 587:1 
-4 261:1 306:1 403:1 433:1 450:3 662:1 
-2.236032719051862 403:1 582:1 
-3.994767162728015 19:1 146:1 240:1 319:1 378:1 403:1 434:4 602:4 703:2 793:1 
-0.5984444175710892 2:1 12:1 238:1 330:1 403:1 
-4 403:1 
-4 403:1 
-4 193:1 403:1 782:1 
-0.4695065249820125 81:4 105:4 215:1 337:4 403:1 476:1 484:1 522:1 633:1 680:4 737:1 743:2 769:2 
-4 167:1 193:1 318:1 403:1 
-0.4680513964304758 374:1 403:1 659:1 749:1 
-4 218:1 403:1 537:2 623:1 
-4 403:1 
-4 219:1 306:1 403:1 442:1 556:1 740:1 768:1 788:1 
-4 403:1 
-4 113:1 193:1 278:1 382:1 403:1 536:1 664:1 794:1 
-2.484964184493776 57:1 239:1 403:1 
-4 403:1 
-4 403:1 
-4 163:1 219:1 403:1 
-4 403:1 
-2.315793884043895 12:1 192:1 246:4 279:1 383:1 403:1 
-4 330:1 403:1 745:1 
-4 89:1 403:1 
-4 403:1 579:1 
-4 403:1 
-4 403:1 
-4 167:1 193:1 343:1 403:1 577:1 
-4 403:1 
-0.6433202814534822 19:1 50:1 387:5 391:2 403:1 463:2 473:3 661:1 
-4 403:1 
-0.638472977723745 57:1 80:1 150:2 174:1 195:2 403:2 468:3 513:1 652:1 
